<?xml version="1.0"?>
<opencv_storage>
<stage3>
  <maxWeakCount>14</maxWeakCount>
  <stageThreshold>-9.4311010837554932e-01</stageThreshold>
  <weakClassifiers>
    <_>
      <internalNodes>
        0 -1 112580 -8.5070747882127762e-03</internalNodes>
      <leafValues>
        5.3028690814971924e-01 -3.8223937153816223e-01</leafValues></_>
    <_>
      <internalNodes>
        0 -1 19614 1.4533426612615585e-02</internalNodes>
      <leafValues>
        -1.8188969790935516e-01 7.3197555541992188e-01</leafValues></_>
    <_>
      <internalNodes>
        0 -1 157225 -3.7462515756487846e-03</internalNodes>
      <leafValues>
        -7.6786798238754272e-01 2.1652209758758545e-01</leafValues></_>
    <_>
      <internalNodes>
        0 -1 79957 -3.0655970796942711e-02</internalNodes>
      <leafValues>
        2.5493928790092468e-01 -4.9870201945304871e-01</leafValues></_>
    <_>
      <internalNodes>
        0 -1 9399 -3.5913912579417229e-03</internalNodes>
      <leafValues>
        5.1397222280502319e-01 -2.2070537507534027e-01</leafValues></_>
    <_>
      <internalNodes>
        0 -1 150351 9.7167771309614182e-03</internalNodes>
      <leafValues>
        1.2157989293336868e-01 -8.9473021030426025e-01</leafValues></_>
    <_>
      <internalNodes>
        0 -1 246807 -9.2255417257547379e-04</internalNodes>
      <leafValues>
        -5.5258876085281372e-01 1.6376978158950806e-01</leafValues></_>
    <_>
      <internalNodes>
        0 -1 252599 -2.1622586995363235e-02</internalNodes>
      <leafValues>
        6.1531949043273926e-01 -2.3967352509498596e-01</leafValues></_>
    <_>
      <internalNodes>
        0 -1 111477 -1.8138012383133173e-03</internalNodes>
      <leafValues>
        -8.8197535276412964e-01 1.7400960624217987e-01</leafValues></_>
    <_>
      <internalNodes>
        0 -1 79133 2.7969123329967260e-03</internalNodes>
      <leafValues>
        -2.1855175495147705e-01 5.0624698400497437e-01</leafValues></_>
    <_>
      <internalNodes>
        0 -1 114169 -1.9652533810585737e-03</internalNodes>
      <leafValues>
        -5.8188271522521973e-01 1.6294342279434204e-01</leafValues></_>
    <_>
      <internalNodes>
        0 -1 17709 1.4269498642534018e-03</internalNodes>
      <leafValues>
        -2.2435608506202698e-01 4.5541846752166748e-01</leafValues></_>
    <_>
      <internalNodes>
        0 -1 200331 -2.6406678371131420e-03</internalNodes>
      <leafValues>
        4.2134484648704529e-01 -2.5122296810150146e-01</leafValues></_>
    <_>
      <internalNodes>
        0 -1 103016 1.0220178216695786e-01</internalNodes>
      <leafValues>
        -2.1387249231338501e-01 4.8867538571357727e-01</leafValues></_></weakClassifiers></stage3>
</opencv_storage>
