<?xml version="1.0"?>
<opencv_storage>
<stage6>
  <maxWeakCount>13</maxWeakCount>
  <stageThreshold>-7.2239041328430176e-01</stageThreshold>
  <weakClassifiers>
    <_>
      <internalNodes>
        0 -1 8099 1.9929766654968262e-02</internalNodes>
      <leafValues>
        9.1149270534515381e-02 7.4717831611633301e-01</leafValues></_>
    <_>
      <internalNodes>
        0 -1 160178 -1.0026111267507076e-03</internalNodes>
      <leafValues>
        2.8349348902702332e-01 -4.2350172996520996e-01</leafValues></_>
    <_>
      <internalNodes>
        0 -1 263028 3.8371606933651492e-05</internalNodes>
      <leafValues>
        -3.9716082811355591e-01 2.5186598300933838e-01</leafValues></_>
    <_>
      <internalNodes>
        0 -1 133030 4.8213492846116424e-04</internalNodes>
      <leafValues>
        1.2583543360233307e-01 -7.2801864147186279e-01</leafValues></_>
    <_>
      <internalNodes>
        0 -1 252459 -1.4818720519542694e-02</internalNodes>
      <leafValues>
        4.4928741455078125e-01 -2.2905878722667694e-01</leafValues></_>
    <_>
      <internalNodes>
        0 -1 93851 2.2029844112694263e-03</internalNodes>
      <leafValues>
        1.0154505074024200e-01 -8.1137531995773315e-01</leafValues></_>
    <_>
      <internalNodes>
        0 -1 196239 4.4825240038335323e-03</internalNodes>
      <leafValues>
        9.8810710012912750e-02 -8.2420378923416138e-01</leafValues></_>
    <_>
      <internalNodes>
        0 -1 105500 1.2188270688056946e-02</internalNodes>
      <leafValues>
        -4.6792086958885193e-01 1.8964487314224243e-01</leafValues></_>
    <_>
      <internalNodes>
        0 -1 89459 -5.0453454256057739e-02</internalNodes>
      <leafValues>
        -8.1252479553222656e-01 1.0332603007555008e-01</leafValues></_>
    <_>
      <internalNodes>
        0 -1 196753 1.7062828410416842e-03</internalNodes>
      <leafValues>
        1.9226641952991486e-01 -5.0105977058410645e-01</leafValues></_>
    <_>
      <internalNodes>
        0 -1 192371 1.2276432244107127e-03</internalNodes>
      <leafValues>
        -2.9699867963790894e-01 3.7278991937637329e-01</leafValues></_>
    <_>
      <internalNodes>
        0 -1 133954 4.2761355871334672e-04</internalNodes>
      <leafValues>
        -2.6067233085632324e-01 4.1737669706344604e-01</leafValues></_>
    <_>
      <internalNodes>
        0 -1 113159 3.1276413938030601e-04</internalNodes>
      <leafValues>
        1.9688822329044342e-01 -4.8541468381881714e-01</leafValues></_></weakClassifiers></stage6>
</opencv_storage>
