<?xml version="1.0"?>
<opencv_storage>
<stage20>
  <maxWeakCount>22</maxWeakCount>
  <stageThreshold>-5.8898764848709106e-01</stageThreshold>
  <weakClassifiers>
    <_>
      <internalNodes>
        0 -1 278550 -5.1432242617011070e-04</internalNodes>
      <leafValues>
        5.7097792625427246e-01 6.7137807607650757e-02</leafValues></_>
    <_>
      <internalNodes>
        0 -1 192364 -5.3481524810194969e-03</internalNodes>
      <leafValues>
        7.1853619813919067e-01 -7.1074582636356354e-02</leafValues></_>
    <_>
      <internalNodes>
        0 -1 194712 1.3786131748929620e-03</internalNodes>
      <leafValues>
        -2.3230175673961639e-01 2.9421323537826538e-01</leafValues></_>
    <_>
      <internalNodes>
        0 -1 17713 5.0757447024807334e-04</internalNodes>
      <leafValues>
        -2.4735502898693085e-01 2.7767211198806763e-01</leafValues></_>
    <_>
      <internalNodes>
        0 -1 110619 5.3770160302519798e-03</internalNodes>
      <leafValues>
        1.1251647770404816e-01 -6.8592309951782227e-01</leafValues></_>
    <_>
      <internalNodes>
        0 -1 44811 -4.5853536576032639e-02</internalNodes>
      <leafValues>
        -7.3401010036468506e-01 8.7471686303615570e-02</leafValues></_>
    <_>
      <internalNodes>
        0 -1 94928 -1.3071586145088077e-03</internalNodes>
      <leafValues>
        2.1543830633163452e-01 -3.1431749463081360e-01</leafValues></_>
    <_>
      <internalNodes>
        0 -1 117494 2.3952405899763107e-03</internalNodes>
      <leafValues>
        -2.6267838478088379e-01 3.2640537619590759e-01</leafValues></_>
    <_>
      <internalNodes>
        0 -1 140084 -2.9627711046487093e-04</internalNodes>
      <leafValues>
        2.3573923110961914e-01 -3.2775825262069702e-01</leafValues></_>
    <_>
      <internalNodes>
        0 -1 134760 7.3412404162809253e-04</internalNodes>
      <leafValues>
        -2.3022796213626862e-01 3.3740517497062683e-01</leafValues></_>
    <_>
      <internalNodes>
        0 -1 39735 5.0304224714636803e-04</internalNodes>
      <leafValues>
        -2.7232167124748230e-01 3.1861844658851624e-01</leafValues></_>
    <_>
      <internalNodes>
        0 -1 196128 -5.6327728088945150e-04</internalNodes>
      <leafValues>
        3.6392924189567566e-01 -2.2747126221656799e-01</leafValues></_>
    <_>
      <internalNodes>
        0 -1 115016 1.5709395520389080e-03</internalNodes>
      <leafValues>
        -1.0509998351335526e-01 7.2174453735351562e-01</leafValues></_>
    <_>
      <internalNodes>
        0 -1 241416 -1.9142355769872665e-02</internalNodes>
      <leafValues>
        -6.0096406936645508e-01 1.5493564307689667e-01</leafValues></_>
    <_>
      <internalNodes>
        0 -1 279360 1.0247887112200260e-03</internalNodes>
      <leafValues>
        8.2604743540287018e-02 -6.9016718864440918e-01</leafValues></_>
    <_>
      <internalNodes>
        0 -1 174161 -4.4972100295126438e-04</internalNodes>
      <leafValues>
        3.4388399124145508e-01 -2.2415190935134888e-01</leafValues></_>
    <_>
      <internalNodes>
        0 -1 90902 -4.1467268019914627e-03</internalNodes>
      <leafValues>
        4.6218428015708923e-01 -1.9603054225444794e-01</leafValues></_>
    <_>
      <internalNodes>
        0 -1 269608 1.7873718170449138e-03</internalNodes>
      <leafValues>
        -1.4761219918727875e-01 4.9913138151168823e-01</leafValues></_>
    <_>
      <internalNodes>
        0 -1 64556 -3.4874528646469116e-03</internalNodes>
      <leafValues>
        4.3719318509101868e-01 -1.6768634319305420e-01</leafValues></_>
    <_>
      <internalNodes>
        0 -1 169517 5.7354569435119629e-03</internalNodes>
      <leafValues>
        1.1011808365583420e-01 -6.8899387121200562e-01</leafValues></_>
    <_>
      <internalNodes>
        0 -1 230388 7.0197170134633780e-04</internalNodes>
      <leafValues>
        9.5778957009315491e-02 -6.7350322008132935e-01</leafValues></_>
    <_>
      <internalNodes>
        0 -1 329352 -1.6330716898664832e-03</internalNodes>
      <leafValues>
        4.3847820162773132e-01 -1.7112646996974945e-01</leafValues></_></weakClassifiers></stage20>
</opencv_storage>
