<?xml version="1.0"?>
<opencv_storage>
<stage23>
  <maxWeakCount>8</maxWeakCount>
  <stageThreshold>-9.0496504306793213e-01</stageThreshold>
  <weakClassifiers>
    <_>
      <internalNodes>
        0 -1 106151 -1.9864346832036972e-03</internalNodes>
      <leafValues>
        -2.8229665756225586e-01 6.6240411996841431e-01</leafValues></_>
    <_>
      <internalNodes>
        0 -1 140193 -1.6340076923370361e-02</internalNodes>
      <leafValues>
        1. -2.0882855355739594e-01</leafValues></_>
    <_>
      <internalNodes>
        0 -1 309852 1.4744436368346214e-02</internalNodes>
      <leafValues>
        4.3544778227806091e-01 -6.2653809785842896e-01</leafValues></_>
    <_>
      <internalNodes>
        0 -1 335145 6.6775683080777526e-04</internalNodes>
      <leafValues>
        -3.8047850131988525e-01 6.9865536689758301e-01</leafValues></_>
    <_>
      <internalNodes>
        0 -1 143967 -2.8079766780138016e-02</internalNodes>
      <leafValues>
        -3.6324247717857361e-01 5.9850847721099854e-01</leafValues></_>
    <_>
      <internalNodes>
        0 -1 212056 -6.0244631022214890e-03</internalNodes>
      <leafValues>
        7.9841071367263794e-01 -3.0072152614593506e-01</leafValues></_>
    <_>
      <internalNodes>
        0 -1 218500 -4.3408847413957119e-03</internalNodes>
      <leafValues>
        8.2468444108963013e-01 -2.8578799962997437e-01</leafValues></_>
    <_>
      <internalNodes>
        0 -1 175058 1.4642983442172408e-03</internalNodes>
      <leafValues>
        4.3245631456375122e-01 -5.3728985786437988e-01</leafValues></_></weakClassifiers></stage23>
</opencv_storage>
